
"[[-0.09848932 -0.05929879 -0.15025131 ... -0.11263603 -0.05956604
   0.05036164]
 [-0.01466146  0.06461419 -0.16252524 ... -0.13714232 -0.1609161
   0.14890243]
 [ 0.14073892 -0.10913238  0.08927935 ... -0.09030414  0.01853256
  -0.13764459]
 ...
 [-0.24151461  0.03354306 -0.01909926 ... -0.08569868 -0.14908068
  -0.02966641]
 [-0.12299436 -0.168786   -0.24368854 ...  0.1094754  -0.04232391
   0.05375425]
 [-0.14113465 -0.02572715 -0.0805069  ... -0.0868126  -0.12438764
  -0.05653133]]","[ 0.01348692  0.05660826  0.02174318 -0.02673196  0.00686464  0.05407595
  0.0468414   0.00557899  0.02798035  0.05765253 -0.00901277  0.07216791
  0.03320406  0.00967914  0.02151107  0.04244715  0.02138182  0.0313336
 -0.02783094  0.07934861 -0.02389798  0.04542366  0.07207024  0.0370761
 -0.03363797  0.07340925 -0.01156992 -0.009741    0.01042739 -0.0509751
 -0.01886372 -0.0376499   0.05807851  0.02753064  0.04165263 -0.02601489
  0.0048046  -0.00204071 -0.00291518 -0.00476471  0.02612756  0.06769372
 -0.00153003  0.00254398  0.04692138  0.01560666  0.03277974  0.04665606
 -0.00175802  0.03345635  0.0590948  -0.00820034  0.02173021  0.01815989
 -0.03335287  0.04368547 -0.06298479 -0.03034486  0.06208816 -0.00333382
 -0.03780254 -0.02614662  0.0549988   0.03274725  0.04475395  0.03702338
  0.01309881  0.04780525 -0.0346288   0.00038334  0.01893693  0.03853313
  0.01477689 -0.00304126  0.00558456 -0.00697747  0.01064137  0.02125497
  0.0209748   0.02992924  0.01330718 -0.02274638 -0.00522715  0.08227195
  0.03376122 -0.02052654  0.00750877  0.01400222 -0.00574045  0.02454013
  0.03720637  0.00260184  0.02947915 -0.01316494  0.02936967  0.05799522
 -0.00579795 -0.06472582 -0.00697172  0.01553771 -0.04914127  0.04859333
  0.00875081  0.02206709  0.00498448  0.06442557 -0.02008839 -0.04583163
 -0.02783949  0.02463346 -0.01824138  0.02043201  0.02636602  0.05796494
  0.02467509 -0.01223455 -0.00661319 -0.01903671  0.08193908 -0.02499128
  0.01373533  0.01637142  0.06571987  0.0216983  -0.05500374 -0.00231301
 -0.0100972   0.0629267 ]"

"[[ 0.08558165 -0.02840519  0.02185017 ...  0.08805681  0.03728102
   0.05547349]
 [-0.01224524 -0.01758775  0.04732196 ... -0.16314131 -0.13107036
  -0.07488022]
 [ 0.12599982  0.02604035 -0.132773   ...  0.07398677  0.05766099
  -0.03674402]
 ...
 [ 0.09296829  0.05755115 -0.1199656  ... -0.12429465  0.01989762
  -0.08621748]
 [-0.11716187 -0.0735086  -0.16874744 ...  0.01796739  0.21348222
   0.00433036]
 [ 0.17738271  0.14371377 -0.01038684 ...  0.01863045  0.27141058
   0.01339609]]","[ 0.07658097  0.03733844  0.04578507  0.06063649  0.00015798 -0.04664234
  0.02036225  0.01073499  0.01775355  0.03722143  0.04932038 -0.00573658
  0.10284149  0.05022744  0.01454166 -0.04363171  0.00039005 -0.02883617
  0.04703077  0.02596202  0.00643153  0.0091928   0.04028526  0.02962411
  0.08046415  0.08112501  0.02462119 -0.00163285  0.00905441  0.02538757
  0.0639827   0.04112023  0.02579093  0.02694021  0.02484423  0.03395527
  0.08688039  0.0184637  -0.03877271 -0.01464378  0.02241466  0.03645587
 -0.0377025   0.01212323 -0.02062371  0.01359458  0.03946746  0.04768628
 -0.00224263  0.10484686 -0.00567529  0.0370957  -0.02863716  0.05698531
  0.07982861  0.05050346  0.11624669  0.01896141  0.01618744 -0.04201643
  0.04284578 -0.02168651  0.03225364 -0.03022569]"

"[[ 0.25315058 -0.18711813  0.19992964  0.04210045 -0.35752672 -0.3578401
  -0.30361766 -0.25806856 -0.35878727 -0.1474219 ]
 [-0.14310691  0.23293713  0.00452148 -0.16391754 -0.05627656 -0.3177409
  -0.05937929  0.19190644  0.09136534 -0.15588608]
 [-0.06278757 -0.19698088  0.06309894 -0.23366877 -0.18921992 -0.335472
  -0.03485208  0.07859848 -0.02862431 -0.15869294]
 [ 0.10798741 -0.13874678  0.2839231  -0.14616217 -0.00074968  0.06850959
  -0.30834016 -0.13277785 -0.28167588 -0.05297208]
 [-0.11290138 -0.05566122  0.3235757   0.05022445  0.13521603  0.00195014
   0.19788072  0.20139945 -0.1679734  -0.04018699]
 [-0.19046006 -0.09364435 -0.20746337 -0.00468085 -0.11226256 -0.06372671
  -0.20358509  0.20753968 -0.12116411 -0.32415473]
 [ 0.28791708 -0.04943534 -0.27504417 -0.20652208  0.13306491  0.11761057
  -0.30212864 -0.08593027 -0.1166914   0.08583213]
 [-0.2072327   0.03091443  0.14434056 -0.27753377  0.02358946 -0.17902343
   0.08637262 -0.2712809  -0.29956535 -0.24409702]
 [ 0.06504886  0.1415589  -0.17372392  0.13618009  0.03824406 -0.14837289
  -0.33405718 -0.30569646 -0.20351459 -0.13185835]
 [ 0.28232223 -0.20416264  0.08328736 -0.11776865  0.15136911  0.16120993
  -0.00471326 -0.29546008 -0.1342051   0.09637216]
 [ 0.19823645  0.13919574  0.0194642  -0.19139229 -0.25114447 -0.10095032
   0.10883979 -0.29928905 -0.31881317  0.12057083]
 [ 0.00701494  0.07638568 -0.1833132  -0.10395996 -0.1822503  -0.36153987
   0.06384928 -0.06492574 -0.18186933 -0.26455113]
 [ 0.24293007  0.21746479  0.18743367  0.1015432  -0.17839342 -0.09995952
  -0.21546887  0.12823626 -0.03749884 -0.11752545]
 [ 0.29251808 -0.14408535  0.12202267  0.01400924  0.14043342  0.164421
  -0.0874868   0.1049637  -0.06065491  0.10791398]
 [ 0.2518324   0.05826141 -0.10604846 -0.12369006  0.14363366 -0.33407274
   0.04384763 -0.27539957 -0.28763992 -0.02341467]
 [-0.07954462 -0.1851482  -0.03208904 -0.18546729  0.2280697   0.05259792
   0.21676053  0.22629091  0.05824973 -0.21046542]
 [ 0.24913996 -0.04834117 -0.1732553  -0.24518447  0.17258112 -0.08744814
  -0.00193456 -0.22791526 -0.02039889  0.21703474]
 [-0.03858475 -0.03987093 -0.21508451 -0.30621383 -0.24273948  0.12357836
  -0.06587584 -0.00235398  0.02759391  0.2287286 ]
 [ 0.12332559  0.20988525 -0.18385863 -0.20360538 -0.18226531  0.00238683
   0.02015788 -0.08030792  0.07679366 -0.07093346]
 [ 0.08440328  0.2067609  -0.11673082  0.17179713 -0.01510292 -0.2873243
  -0.11178975 -0.3352344  -0.11912904 -0.02616454]
 [ 0.01679323  0.3001903  -0.21731062  0.21547517  0.00731757 -0.30832872
   0.20592368 -0.05254807 -0.3361194  -0.31195334]
 [ 0.07981796 -0.00420346  0.10506383  0.15196241 -0.09369308 -0.13439216
   0.11699437  0.18447775  0.03075307 -0.26793462]
 [ 0.33339703  0.22093901 -0.12330599  0.0749651  -0.31075636 -0.35821345
  -0.27223915 -0.24555439  0.14443298 -0.12584858]
 [-0.20065138  0.2342736   0.02328756  0.07638376 -0.23128249 -0.34382212
  -0.31211635 -0.01215893  0.07994459 -0.16182704]
 [ 0.07573719 -0.0661027   0.34282896 -0.00903692  0.21791105 -0.08690093
   0.14560542 -0.13266763 -0.06408698 -0.11642217]
 [ 0.10663083  0.11328126  0.22629097 -0.34422746 -0.3154404   0.03971684
   0.06465632 -0.03129957 -0.27986664 -0.22995627]
 [ 0.1733384   0.14917472 -0.24354863 -0.1201295  -0.13979171  0.1439986
  -0.33021662 -0.14067535 -0.32235405 -0.3261004 ]
 [-0.23518945  0.12321458  0.12646767 -0.07481322 -0.12461983  0.11280683
  -0.34692073 -0.11001708 -0.06293369  0.0267412 ]
 [ 0.19580361 -0.01193202  0.03007338  0.18209067 -0.25911868  0.03922186
   0.17873414 -0.07985011  0.16980594 -0.29385293]
 [ 0.01210375  0.16491476  0.04407889  0.08480579  0.02545107 -0.21270403
   0.06988318 -0.13837987  0.00349228 -0.0724123 ]
 [-0.00457318 -0.06570326  0.07209149 -0.27991638 -0.26452523 -0.25383094
  -0.28322288  0.16700695  0.0258695  -0.18688005]
 [-0.2156596   0.16145915  0.33663005  0.08997653 -0.12673654 -0.05736237
  -0.34411663  0.07397733 -0.11682857  0.18660158]
 [-0.25613135  0.2104837   0.13044572  0.02592306  0.06520121 -0.08501051
   0.03737596 -0.26809177 -0.11108319 -0.08508167]
 [-0.24781059  0.06325381  0.1636838  -0.0824403  -0.19438398 -0.08517537
   0.17888412 -0.04621415 -0.09070507 -0.30427015]
 [ 0.1475714  -0.11165538 -0.04066334 -0.10287615 -0.2152048   0.07129844
   0.06298958 -0.25720146 -0.15337342  0.05274886]
 [ 0.23959851 -0.10775276  0.08133461  0.18380669 -0.11102838 -0.26092377
  -0.02917276  0.04493292 -0.16446717  0.1664974 ]
 [ 0.24018334 -0.04521864  0.28553483 -0.18666574 -0.06439976 -0.15984581
  -0.15350989 -0.36486447 -0.24263945 -0.11662281]
 [-0.01913355  0.24367206 -0.04879746  0.1704011   0.10543655  0.02115833
  -0.0490155  -0.12603517 -0.08214341 -0.17054608]
 [-0.05954173 -0.16761656 -0.13028353 -0.10487949 -0.17085296 -0.00593014
  -0.09271617  0.03393218  0.19658598 -0.0314031 ]
 [-0.26282227  0.07318677 -0.03292878  0.09670368 -0.09301561 -0.04504103
   0.18741623 -0.07543261  0.18924783 -0.3125761 ]
 [ 0.21371545  0.0995364  -0.04693778 -0.08452842 -0.2586387   0.11250138
  -0.1955683  -0.02580229  0.12921762 -0.1786202 ]
 [-0.05783572  0.17262997 -0.06040084 -0.33152974 -0.05838946 -0.06476672
  -0.18986946 -0.36658278 -0.12257156 -0.12115162]
 [-0.17902653 -0.16656086 -0.11088119 -0.15453176 -0.08928488 -0.11395611
  -0.1205003  -0.31664237  0.05161501  0.21494249]
 [-0.22224902 -0.26060322  0.03656756  0.08167597 -0.02922257 -0.29121813
  -0.12456398  0.23572175 -0.03895619  0.06370739]
 [ 0.01139813  0.16467561 -0.20256327  0.07105623 -0.27939692 -0.12698075
  -0.04983413 -0.19020942 -0.24841125  0.04628471]
 [-0.02012966 -0.14435966  0.21840972  0.08208237 -0.16355589 -0.12027719
   0.08707228 -0.1581581   0.05857235 -0.20790869]
 [-0.1290778   0.34003094  0.15191807 -0.20839185  0.05088982  0.20541042
  -0.14635845  0.00963188 -0.08001539  0.08517718]
 [-0.21888497  0.15576048 -0.04791816 -0.33092144 -0.27837652 -0.07644589
  -0.28637543 -0.31276855 -0.08993317 -0.14296123]
 [-0.21594174  0.02954781  0.20765032  0.14521573 -0.30951378  0.12169925
  -0.17158274 -0.01632712 -0.29245874 -0.27844995]
 [ 0.02525655  0.11439018 -0.03635384 -0.14132684  0.06354589 -0.088698
  -0.1231614  -0.13142261 -0.08078991  0.02163524]
 [ 0.01253238  0.2624536  -0.21304676  0.0315758  -0.1775901  -0.16916256
  -0.19580278  0.18529046 -0.18966784  0.20388982]
 [-0.02355296 -0.13073076  0.21811199 -0.16792694 -0.31297138 -0.1878664
  -0.3333836  -0.14578693  0.20608751 -0.00294441]
 [-0.1304579   0.2683564  -0.1427002  -0.17510359  0.12517416 -0.161877
   0.21947506 -0.30198044 -0.19356     0.11789139]
 [-0.03188501 -0.05881602  0.23245667 -0.32079768 -0.2647387  -0.06314086
  -0.02096845 -0.30085808 -0.24786882  0.20104209]
 [ 0.17961173 -0.11791573  0.23000328  0.09033249 -0.14857724  0.11534413
  -0.09574773 -0.35811296 -0.31636024 -0.08414798]
 [ 0.00784922 -0.13777973  0.23994201  0.13384639 -0.29377723 -0.25596684
  -0.08214065 -0.31410766 -0.32633644 -0.19034137]
 [ 0.09468421 -0.09881492  0.14067514 -0.29909298 -0.35623336 -0.18725468
  -0.36676592  0.05378151 -0.18267633 -0.29514313]
 [-0.02437843 -0.22838522  0.28107226 -0.32696718 -0.14368376 -0.00779975
   0.04542374  0.05921277  0.12360203 -0.04639212]
 [ 0.2559488  -0.0744029  -0.0569503  -0.28734678 -0.26754403 -0.2366364
   0.15375699 -0.20075366  0.10972807  0.0514584 ]
 [-0.0569637  -0.04398309 -0.11752366  0.02667637  0.01644259 -0.30477104
   0.23688102 -0.11584117 -0.04067504 -0.12647012]
 [-0.07689627  0.24829696  0.18122454  0.15206921  0.08622011 -0.15514283
  -0.2630623   0.09148681 -0.2949886  -0.3283528 ]
 [-0.13491367  0.03637089  0.16976573 -0.15002628  0.09550454 -0.0405756
   0.15035127 -0.2300762  -0.25762457  0.03270177]
 [ 0.11159995 -0.12729739 -0.12120556 -0.1284515  -0.34263703 -0.07158206
   0.19557256 -0.31043258  0.1487648  -0.24163121]
 [-0.24655041  0.12162028  0.04244805  0.23737763  0.12247624  0.12914117
   0.22721663  0.00669479 -0.24937662 -0.2737371 ]]","[ 0.06995542  0.04008063  0.08200081 -0.09956725 -0.08654623 -0.10317146
 -0.08758007 -0.10728604 -0.09332594 -0.09037403]"
